digraph Tree {
node [shape=box, style="rounded", color="black", fontname=helvetica] ;
edge [fontname=helvetica] ;
0 [label="X[0] <= 34130444.0\nmse = 372.036\nsamples = 38\nvalue = 12.737"] ;
1 [label="X[0] <= 16141744.0\nmse = 130.19\nsamples = 37\nvalue = 10.162"] ;
0 -> 1 [labeldistance=2.5, labelangle=45, headlabel="True"] ;
2 [label="X[0] <= 3095237.0\nmse = 41.948\nsamples = 34\nvalue = 7.588"] ;
1 -> 2 ;
3 [label="X[3] <= 5.3\nmse = 7.34\nsamples = 16\nvalue = 3.312"] ;
2 -> 3 ;
4 [label="mse = 0.0\nsamples = 1\nvalue = 12.0"] ;
3 -> 4 ;
5 [label="X[1] <= 115539.5\nmse = 2.462\nsamples = 15\nvalue = 2.733"] ;
3 -> 5 ;
6 [label="X[5] <= 64.7\nmse = 1.854\nsamples = 12\nvalue = 2.25"] ;
5 -> 6 ;
7 [label="X[1] <= 19888.0\nmse = 0.667\nsamples = 3\nvalue = 4.0"] ;
6 -> 7 ;
8 [label="mse = 0.0\nsamples = 1\nvalue = 5.0"] ;
7 -> 8 ;
9 [label="X[1] <= 56733.5\nmse = 0.25\nsamples = 2\nvalue = 3.5"] ;
7 -> 9 ;
10 [label="mse = 0.0\nsamples = 1\nvalue = 4.0"] ;
9 -> 10 ;
11 [label="mse = 0.0\nsamples = 1\nvalue = 3.0"] ;
9 -> 11 ;
12 [label="X[3] <= 8.25\nmse = 0.889\nsamples = 9\nvalue = 1.667"] ;
6 -> 12 ;
13 [label="X[0] <= 821156.0\nmse = 0.4\nsamples = 5\nvalue = 1.0"] ;
12 -> 13 ;
14 [label="mse = 0.0\nsamples = 1\nvalue = 0.0"] ;
13 -> 14 ;
15 [label="X[0] <= 1238903.0\nmse = 0.188\nsamples = 4\nvalue = 1.25"] ;
13 -> 15 ;
16 [label="mse = 0.0\nsamples = 2\nvalue = 1.0"] ;
15 -> 16 ;
17 [label="X[0] <= 1613161.5\nmse = 0.25\nsamples = 2\nvalue = 1.5"] ;
15 -> 17 ;
18 [label="mse = 0.0\nsamples = 1\nvalue = 2.0"] ;
17 -> 18 ;
19 [label="mse = 0.0\nsamples = 1\nvalue = 1.0"] ;
17 -> 19 ;
20 [label="X[3] <= 8.85\nmse = 0.25\nsamples = 4\nvalue = 2.5"] ;
12 -> 20 ;
21 [label="mse = 0.0\nsamples = 2\nvalue = 3.0"] ;
20 -> 21 ;
22 [label="mse = 0.0\nsamples = 2\nvalue = 2.0"] ;
20 -> 22 ;
23 [label="X[1] <= 133421.5\nmse = 0.222\nsamples = 3\nvalue = 4.667"] ;
5 -> 23 ;
24 [label="mse = 0.0\nsamples = 1\nvalue = 4.0"] ;
23 -> 24 ;
25 [label="mse = 0.0\nsamples = 2\nvalue = 5.0"] ;
23 -> 25 ;
26 [label="X[5] <= 186.6\nmse = 42.015\nsamples = 18\nvalue = 11.389"] ;
2 -> 26 ;
27 [label="X[3] <= 5.9\nmse = 35.918\nsamples = 14\nvalue = 13.286"] ;
26 -> 27 ;
28 [label="X[2] <= 15.1\nmse = 2.0\nsamples = 3\nvalue = 6.0"] ;
27 -> 28 ;
29 [label="mse = 0.0\nsamples = 2\nvalue = 5.0"] ;
28 -> 29 ;
30 [label="mse = 0.0\nsamples = 1\nvalue = 8.0"] ;
28 -> 30 ;
31 [label="X[0] <= 8102259.5\nmse = 26.744\nsamples = 11\nvalue = 15.273"] ;
27 -> 31 ;
32 [label="X[4] <= 536.1\nmse = 24.25\nsamples = 8\nvalue = 13.5"] ;
31 -> 32 ;
33 [label="X[4] <= 467.6\nmse = 18.556\nsamples = 6\nvalue = 15.333"] ;
32 -> 33 ;
34 [label="X[0] <= 3673429.0\nmse = 4.0\nsamples = 2\nvalue = 10.0"] ;
33 -> 34 ;
35 [label="mse = 0.0\nsamples = 1\nvalue = 8.0"] ;
34 -> 35 ;
36 [label="mse = 0.0\nsamples = 1\nvalue = 12.0"] ;
34 -> 36 ;
37 [label="X[1] <= 44991.5\nmse = 4.5\nsamples = 4\nvalue = 18.0"] ;
33 -> 37 ;
38 [label="mse = 0.0\nsamples = 2\nvalue = 16.0"] ;
37 -> 38 ;
39 [label="X[5] <= 142.8\nmse = 1.0\nsamples = 2\nvalue = 20.0"] ;
37 -> 39 ;
40 [label="mse = 0.0\nsamples = 1\nvalue = 21.0"] ;
39 -> 40 ;
41 [label="mse = 0.0\nsamples = 1\nvalue = 19.0"] ;
39 -> 41 ;
42 [label="X[1] <= 61650.5\nmse = 1.0\nsamples = 2\nvalue = 8.0"] ;
32 -> 42 ;
43 [label="mse = 0.0\nsamples = 1\nvalue = 9.0"] ;
42 -> 43 ;
44 [label="mse = 0.0\nsamples = 1\nvalue = 7.0"] ;
42 -> 44 ;
45 [label="X[1] <= 31436.0\nmse = 2.667\nsamples = 3\nvalue = 20.0"] ;
31 -> 45 ;
46 [label="mse = 0.0\nsamples = 1\nvalue = 22.0"] ;
45 -> 46 ;
47 [label="X[4] <= 549.75\nmse = 1.0\nsamples = 2\nvalue = 19.0"] ;
45 -> 47 ;
48 [label="mse = 0.0\nsamples = 1\nvalue = 20.0"] ;
47 -> 48 ;
49 [label="mse = 0.0\nsamples = 1\nvalue = 18.0"] ;
47 -> 49 ;
50 [label="X[3] <= 7.5\nmse = 6.688\nsamples = 4\nvalue = 4.75"] ;
26 -> 50 ;
51 [label="mse = 0.0\nsamples = 1\nvalue = 9.0"] ;
50 -> 51 ;
52 [label="X[1] <= 35647.0\nmse = 0.889\nsamples = 3\nvalue = 3.333"] ;
50 -> 52 ;
53 [label="mse = 0.0\nsamples = 1\nvalue = 2.0"] ;
52 -> 53 ;
54 [label="mse = 0.0\nsamples = 2\nvalue = 4.0"] ;
52 -> 54 ;
55 [label="X[3] <= 8.25\nmse = 204.222\nsamples = 3\nvalue = 39.333"] ;
1 -> 55 ;
56 [label="mse = 0.0\nsamples = 1\nvalue = 57.0"] ;
55 -> 56 ;
57 [label="X[4] <= 514.55\nmse = 72.25\nsamples = 2\nvalue = 30.5"] ;
55 -> 57 ;
58 [label="mse = 0.0\nsamples = 1\nvalue = 22.0"] ;
57 -> 58 ;
59 [label="mse = 0.0\nsamples = 1\nvalue = 39.0"] ;
57 -> 59 ;
60 [label="mse = 0.0\nsamples = 1\nvalue = 108.0"] ;
0 -> 60 [labeldistance=2.5, labelangle=-45, headlabel="False"] ;
}